1.39 -1.014 -3.116 0.6921 0.9369 1.417 -2.163 -1.565 1.494 1.943 -3.759 -2.971 0.76 -4.085 -0.4512 3.052 1.776 -1.731 -2.628 2.047 -5.731 -0.3528 -2.976 -3.986 4.337 -0.8491 2.358 1.155 -1.168 -1.113 2.092 -0.6829 -5.363 -2.15 -0.458 -0.1481 2.705 -2.706 -2.697 2.59 1.392 0.0344 2.092 1.234 -3.673 0.9627 -4.406 -3.353 -2.517 -0.848 -3.454 2.207 1.558 2.036 0.9122 2.399 -3.663 2.04 -0.916 -0.4531 0.8588 -4.036 0.4399 1.901 1.648 -0.8246 -1.851 -0.7854 0.9864 -0.08839 -1.254 2.659 2.58 0.1994 1.147 0.8775 4.143 -2.095 2.772 -2.021 1.348 2.165 -0.07378 -1.49 -1.092 2.422 2.706 -0.9921 0.01228 -1.089 1.636 1.629 -0.1914 -2.714 -2.36 0.1236 1.407 -2.169 0.3435 3.489 1.406 0.6986 -0.1169 0.03615 -2.609 -2.272 -2.275 0.117 -0.4646 0.1338 0.921 -1.122 -0.5072 -1.837 -2.376 -1.964 -1.792 -0.8867 -2.276 1.217 -1.82 -1.938 2.907 2.993 -0.0504 -2.422 -4.649 -0.7288 -3.453 2.995 -0.3208 -1.591 -0.2727 2.698 -2.584 0.2144 1.735 -3.528 -2.899 -0.7754 0.1987 0.1491 2.354 -1.576 -0.1315 -3.226 -2.22 0.2317 -4.209 -3.842 2.269 -1.816 -0.1197 2.862 0.4594 -1.656 -0.9816 3.215 -1.885 -4.371 2.381 1.959 2.048 1.324 0.3637 -0.5517 -1.138 0.5454 1.82 1.612 1.933 3.154 1.003 -0.3767 2.768 1.702 0.1435 3.421 1.513 -0.5792 -0.1087 -0.1239 -0.09822 -0.7689 -3.789 0.5499 -2.554 -0.5121 -1.624 -1.269 0.9383 0.08626 1.117 -1.11 -0.2887 -0.7343 -3.802 -0.9531 1.304 -3.6 0.5301 -3.431 1.394 -0.9804 -0.5345 -1.34 1.006 0.1614 -0.04186 -1.961 0.2646 -1.259 -2.029 -0.01326 2.229 1.454 -2.427 2.028 5.693 -3.858 -1.299 1.245 0.8063 -1.374 -3.222 3.89 1.046 -1.514 -1.69 -0.6524 0.1312 -0.1148 -1.221 0.5103 0.9311 0.6874 -0.4292 -1.722 1.674 1.526 0.9695 2.001 0.2422 0.5356 2.119 2.836 1.83 0.8991 3.202 -1.371 -0.9769 2.475 3.661 0.2781 -0.5723 1.038 -2.844 1.898 0.6035 -1.883 0.8986 -2.669 -1.102 0.7569 -2.462 0.9692 2.385 -0.1382 -0.9989 3.627 -2.419 1.959 -0.7242 0.2359 -2.25 -2.596 1.876 -1.277 2.31 1.227 0.5781 -0.02514 0.4312 -2.123 0.3419 1.163 -1.162 1.621 -1.455 -1.381 4.085 0.4204 0.8707 2.13 2.275 0.1015 -2.259 -1.398 -1.741 -1.669 -2.936 0.2646 -3.606 1.572 -0.957 1.122 1.239 0.8647 -1.363 0.6833 -0.8875 -2.773 2.648 -2.275 1.562 2.726 -0.737 1.572 1.549 -3.169 2.16 0.6963 -0.643 3.258 0.3871 0.1892 3.843 -0.2074 0.6568 0.2724 0.623 -0.2247 -2.045 -1.663 -1.356 -1.153 0.5202 -1.015 -0.5847 -1.094 -1.471 -1.087 0.9097 0.9798 0.3626 -0.2393 -2.312 -0.4103 -0.8183 3.392 1.625 -2.032 1.966 -0.0768 0.8867 1.719 -1.551 4.032 -0.6323 0.6697 -2.919 -0.5627 1.978 2.45 -0.1235 -1.296 1.047 1.748 0.7766 -4.178 -0.1132 3.723 0.2753 1.687 2.128 1.642 1.061 0.1655 1.792 -0.2035 -3.278 1.877 3.154 -0.9272 -2.83 1.203 -0.726 -2.362 1.425 -0.6002 0.8472 1.427 -0.6706 -1.993 0.7357 1.147 0.08356 -3.062 2.638 -0.02928 -0.7781 1.276 0.07096 2.589 2.274 -1.498 -5.317 -2.458 -1.217 -0.5499 1.191 2.083 0.5792 -1.757 0.9682 1.623 -1.89 -1.569 -2.856 -0.2134 1.335 1.255 1.17 0.9337 0.3833 -0.1897 0.4745 -1.834 -1.388 -1.386 -1.051 1.626 -0.8506 0.8448 1.026 1.979 -1.278 -2.076 -0.554 0.01112 -3.575 -0.7957 -0.1628 0.2637 1.369 -0.4073 0.7528 0.301 -1.147 -1.775 -0.6965 -0.2401 -2.28 1.546 -1.448 -0.8636 -0.8636 0.02527 -1.993 -1.717 1.872 -0.7591 -0.7179 0.5954 0.84 1.113 -3.133 -0.2141 2.011 -1.586 -1.405 0.9475 1.176 -2.503 2.076 -1.435 -0.1506 -2.763 0.1189 -0.3552 0.3397 1.16 0.3765 1.923 -0.2765 -1.969 -1.106 0.8272 2.246 -0.4238 -0.1465 -0.9076 0.5499 -0.1195 -2.017 0.7138 -1.635 -0.7416 1.673 -2.063 0.5289 -2.338 1.356 1.352 0.3642 -2.308 -1.92 -1.479 -1.586 1.177 -0.2632 -1.384 0.1143 2.081 0.8689 2.458 -1.738 -0.08982 -0.3106 -0.5284 0.6204 -1.951 1.376 1.281 -0.9992 0.5747 3.164 1.5 -1.245 -1.106 0.9719 0.9667 0.9604 -0.8381 0.2718 -1.777 0.4706 0.974 -0.876 3.207 -0.5248 0.3345 3.786 1.857 0.4991 0.8542 0.2793 1.974 -1.305 1.394 1.463 -0.5634 0.1543 -2.583 0.6557 0.3869 0.07344 2.003 -0.07027 0.4644 -2.02 -2.482 5.169 0.5869 -0.3613 0.3726 -0.631 0.7365 -1.937 -2.007 0.6824 -0.2006 2.013 -0.204 -0.7662 0.02592 1.654 -0.4438 0.743 4.082 1.193 0.07612 -1.943 -2.468 -0.7303 -2.899 -0.5379 0.468 -0.5949 -0.06249 -1.434 0.1589 1.862 2.17 1.551 -1.369 -1.256 0.8265 -1.227 1.811 -1.932 -0.8616 1.237 -0.6393 -0.6921 -0.7327 0.1428 -0.7504 -1.301 0.8738 1.227 -1.637 1.438 -2.513 0.2578 1.205 -1.846 -0.7809 -2.113 0.9717 0.3763 -1.376 0.7294 -0.7245 1.402 -0.2861 0.4279 1.008 -0.06056 0.4703 0.4892 -1.496 1.919 -0.0002929 -2.116 -0.3713 -0.6927 1.35 0.3639 3.351 0.7479 -1.275 1.93 0.1823 1.543 -0.826 0.5669 -0.5727 3.358 -1.654 -0.9294 -2.43 1.225 0.01867 0.01073 -2.492 1.475 -1.968 -0.7351 -0.1141 -0.1366 -0.1823 -0.07147 -0.7435 -0.08795 2.184 -0.8885 -1.11 -0.3948 1.43 1.444 -0.9372 -2.055 -0.7821 2.1 -0.4587 0.7071 -1.383 -1.503 0.7185 -0.591 -0.4419 4.12 -1.107 0.5028 2.809 -0.5575 0.9204 -1.644 -0.02553 0.6016 1.99 -1.183 0.1241 -2.132 -1.595 -0.1599 0.308 -1.63 2.756 0.1511 1.346 2.518 0.4485 -2.577 0.2697 -3.026 -0.8673 -1.216 -1.226 3.124 -1.217 -0.9002 -0.9262 -1.628 1.049 -0.7402 0.1847 -0.2741 -0.6462 0.6269 -1.559 -0.1303 0.8015 -0.7579 2.231 0.716 1.497 2.387 2.301 1.415 -2.925 1.017 2.951 -2.14 2.107 0.6818 1.508 1.935 1.048 1.163 -0.6871 -3.523 1.931 -0.8302 0.07456 1.872 -2.114 -1.639 1.745 -2.244 0.1707 -2.666 1.136 -2.045 -1.281 0.5815 -0.7451 1.326 0.1903 1.136 1.352 0.6178 -1.301 2.159 0.5474 -1.797 -1.777 -0.1443 1.417 -3.597 -1.854 0.2108 0.6424 2.52 1.632 -0.6608 0.1199 0.2708 0.09078 -1.154 2.492 -0.5873 3.072 -1.793 0.2464 -2.242 0.7438 -2.174 0.4035 1.515 0.321 -0.128 -0.277 -0.1227 -0.3038 0.1541 0.5283 -1.387 0.6624 1.243 2.654 0.21 2.65 -2.663 2.04 -1.318 -1.847 -0.1924 -1.766 2.921 -0.02149 1.371 -0.2443 2.358 -3.053 -0.9691 0.8261 -1.346 1.3 -3.238 -0.5876 -1.11 -0.5421 0.7731 -0.547 -2.26 -1.731 -0.1418 1.459 1.287 1.814 1.017 -0.4814 0.87 -1.411 -2.418 1.321 0.8739 2.982 -0.1281 2.061 0.3559 1.827 0.4002 0.1029 -0.2236 -0.06874 0.6541 2.115 -0.1758 -0.4144 -1.193 1.793 0.3677 0.8779 -2.179 0.1585 -0.8758 1.006 -0.4013 3.392 0.1677 0.5165 2.939 -2.237 1.101 3.042 -2.767 -2.646 1.521 0.5944 -0.5404 -0.3436 0.2882 -0.08154 0.791 -1.873 0.5248 1.35 -1.535 0.9369 0.2613 1.632 0.2515 -0.0845 1.093 -1.151 -1.042 -1.045 0.03766 -1.659 0.1836 -0.04994 -0.7717 0.09177 0.3399 -1.124 1.665 0.8202 0.4016 1.402 1.238 -0.8558 0.866 0.9535 -0.9439 -0.3716 0.709 0.1037 -1.232 0.3544 -1.025 -2.306 0.2847 1.432 1.759 0.5468 -0.2517 -0.1304 0.1798 -0.09797 -0.6359 1.65 0.3558 -0.625 0.7963 -0.3262 -1.791 -4.037 0.8373 2.226 0.6979 -0.1984 -1.027 -1.406 -0.7452 -2.149 -1.87 -2.297 -3.014 0.4791 -1.341 -1.597 -1.096 0.1567 -1.385 0.6673 0.6494 -0.04625 -0.1427 -0.2456 -0.4502 -0.244 2.755 -2.099 0.5918 -0.8449 1.641 -1.769 0.4884 -1.1 2.325 0.4351 -1.005 0.09674 2.284 -0.3614 -1.443 -0.5925 2.934 1.919 4.949 -0.8459 -0.8751 0.5861 1.799 0.5434 -0.9644 0.1182 -0.3772 -0.833 1.8 -1.789 1.165 0.8256 -1.535 -0.6608 -2.97 1.171 -2.226 1.293 1.964 -0.9503 -2.341 1.869 -1.282 2.792 -3.754 -0.2237 0.8803 -1.543 1.187 -0.1358 1.721 -0.7108 1.089 -0.2109 0.5717 -0.05826 0.3153 -0.2874 0.2711 0.469 0.1653 0.4096 -5.283 -0.7997 -0.6049 -3.991 1.782 0.8432 3.894 -2.003 4.755 -2.752 0.5326 -2.409 0.02159 -1.03 1.606 -0.2358 -0.9195 2.189 -1.807 1.317 0.4208 2.139 2.323 -0.1553 0.08935 0.2693 -2.797 -0.3528 1.667 -3.484 2.769 0.299 0.03618 -1.014 -0.4407 -0.1122 -0.7805 1.466 -0.03836 -1.523 -0.2117 1.82 1.522 2.399 -1.392 0.3323 -1.937 1.081 2.556 1.149 -0.3253 0.3176 0.1077 -4.135 2.413 1.892 -0.5234 -2.601 0.3756 1.383 -1.527 1.614 1.055 -1.183 0.5659 -2.668 2.074 1.442 -1.006 3.028 0.2393 -1.194 0.8903 2.039 -0.5772 0.369 1.586 1.86 0.5713 -2.074 -2.293 0.2707 0.4742 -0.1512 -0.7586 -2.392 -1.556 -1.813 2.311 0.2653 -0.8132 -1.39 -2.66 -1.253 -0.2545 2.731 0.5862 1.397 1.146 0.2637 1.703 1.017 -0.5305 -1.742 0.2013 2.338 1.197 -0.486 0.5088 0.2658 -1.45 0.6298 -0.2047 2.22 3.495 1.846 -1.983 0.922 -2.63 -0.859 -0.393 0.4596 0.8489 1.619 1.354 -2.752 1.527 -0.7516 3.086 -1.784 0.8284 -2.661 2.578 2.299 -2.016 0.3248 0.6672 2.964 0.8978 0.6157 0.7362 2.749 -1.277 -0.6018 -1.205 -0.7678 0.08925 0.6489 1.645 -1.436 -3.098 1.332 -1.838 2.91 1.705 -1.138 -3.802 -2.181 -1.436 2.602 1.725 0.6096 -1.242 -1.157 -1.167 -0.09983 2.941 -3.756 -2.023 0.1229 -0.8572 0.5238 0.4563 0.9553 3.113 -1.285 -2.762 -1.882 -2.632 0.3932 -0.5319 0.6153 -2.412 0.09312 -2.132 1.829 -0.1614 -1.91 -0.7475 -0.3937 0.06214 -4.045 -0.7254 1.583 2.88 -0.6457 0.5597 2.467 -0.2821 -2.778 -0.4268 -0.9895 3.507 -3.783 -0.4355 4.123 1.41 -1.855 1.473 1.201 2.143 -3.471 -0.3896 -0.5862 -1.072 1.408 -0.1755 -0.7367 1.713 -0.8419 0.839 -1.855 -1.945 1.449 2.132 -2.425 -3.293 0.7241 0.7911 -0.4091 -1.076 -1.775 -0.3985 0.6536 3.179 3.224 1.761 1.093 3.295 3.545 0.564 0.9806 0.8787 0.5286 0.5882 1.226 1.702 -0.2555 -3.52 -3.449 0.2194 3.543 -2.01 -1.841 -1.161 -0.9667 -2.043 -0.2723 3.756 1.11 0.2937 -2.823 -1.492 -3.372 0.06097 -1.238 -3.307 0.6057 0.1554 0.3605 2.024 -1.337 1.729 1.35 0.3367 0.4069 0.8897 -1.841 0.919 0.3412 -1.498 -0.4685 0.8076 -1.861 -0.2799 4.142 -1.205 -1.885 0.1324 1.643 -0.4255 -0.2858 -0.9653 0.6721 -3.659 1.744 -0.2326 0.7026 -2.332 1.066 0.701 0.7781 -0.8331 -1.861 0.311 0.6149 -5.426 -0.6155 0.5713 -0.4575 0.267 -1.528 -1.874 1.553 -1.936 -2.114 -0.3249 -2.288 3.01 -2.195 1.661 2.658 -0.05477 -0.9591 3.196 -0.9022 1.291 -0.9089 3.399 -2.834 -0.6055 -2.577 -1.956 -0.7375 -0.9583 -2.436 1.455 -2.149 0.7294 0.8003 -0.01239 -0.6182 0.9664 0.1551 -0.9747 -0.6348 -3.2 -2.729 -0.2243 2.924 -2.905 1.132 2.162 -2.136 -0.3492 1.37 2.786 -0.06805 -1.083 -1.502 1.055 0.5558 2.382 -1.631 1.712 2.933 0.4257 3.292 -1.917 -1.72 2.083 -0.2633 -2.719 1.915 -3.068 0.5772 -2.765 -1.054 0.5612 2.387 -0.988 -1.166 1.194 1.067 -0.791 0.007585 3.609 -3.388 -2.429 -0.09078 -1.468 -3.446 -0.02166 2.036 1.207 -2.042 -0.0588 -2.614 -3.489 -0.5338 -0.9997 3.901 -2.191 2.403 -0.2247 -1.025 3.255 1.308 2.423 -2.18 -1.857 -0.9189 -1.504 4.206 -0.8022 -2.517 -1.92 -2.798 -2.007 0.8087 0.2276 -0.3432 1.383 2.2
