-0.1934 -0.4869 0.2474 -0.5727 -0.03087 0.04038 -0.764 -0.2104 0.1604 0.1873 0.2019 0.2033 -0.007712 0.3282 -0.07668 -0.1343 -0.1178 0.7051 -0.1141 0.422 -0.1669 -0.07542 -0.7237 -0.302 -0.3042 -0.3788 0.1913 -0.3775 0.08511 -0.2453 0.2903 -0.08208 1.106 0.3487 0.2967 0.008978 0.01974 0.04884 0.2749 -0.5134 0.245 0.1271 0.8286 0.4175 -0.1961 0.3766 -0.3409 -0.3024 0.4125 -0.03555 0.1005 0.4115 -0.3092 -0.1329 -0.4619 0.4094 -0.07565 0.4957 -0.0543 0.1677 -0.2159 -0.4875 -0.161 -0.347 -0.2935 0.1978 -0.3354 -0.5539 0.3949 0.3647 0.4202 0.4779 -0.02681 0.5211 -0.03651 0.9533 -0.1127 0.1794 0.08277 -0.7092 0.1167 0.05409 0.4907 0.3295 0.3956 0.2644 0.5066 -0.2044 0.2541 0.1381 -0.01514 -0.2929 0.1912 0.106 -0.8857 -0.8275 0.2561 0.0747 0.7564 -0.6453 0.4459 -0.04347 -0.1396 0.1063 0.01014 0.1722 -0.8044 0.00452 0.03538 -0.7845 -0.1329 -0.004847 -0.325 0.2281 0.04748 0.4916 0.005866 0.3567 0.5561 0.1228 0.4526 -0.6531 -0.03522 0.6878 -0.5986 0.1541 -0.6463 -0.2276 -0.06326 0.3975 -0.3334 0.3864 0.5257 0.78 -0.2247 -0.132 0.03662 -0.1636 -0.05428 0.5941 1.013 -0.6346 -0.387 0.4209 0.234 0.6725 0.3552 -0.255 0.1685 -0.7306 -0.5028 0.3636 0.4419 -0.7554 -0.794 0.3266 -0.1274 -0.2667 -0.4644 -0.1589 -0.03676 -0.006915 -0.09175 0.1348 -0.1767 0.4556 -0.162 0.1159 0.1115 0.03422 -0.1947 0.3882 0.2938 0.05583 0.407 0.8042 0.06186 -0.06129 -0.1894 -0.6529 -0.2963 -0.8371 -0.4139 0.4237 0.7323 0.3937 0.4146 0.03643 0.3576 0.09075 -0.6162 -0.6748 0.4488 0.4154 0.4501 0.4848 -0.3056 0.01886 0.391 0.632 0.01053 0.5588 -0.3287 0.301 0.1905 -0.9596 0.3629 -0.2637 -0.5599 0.255 0.6073 0.4254 0.6032 -0.1397 -0.4154 -0.3342 0.4372 -0.6569 -0.04636 0.3274 0.008126 0.1939 -0.0655 0.3576 -0.6199 -0.06399 0.6582 -0.4701 -0.7215 -0.08563 0.02013 -0.7246 0.4987 0.08747 0.04548 0.07488 -0.1445 0.6296 -0.7335 0.2671 0.4204 0.3699 -0.4283 0.09256 -0.477 0.433 -0.3767 0.001034 -0.08728 -0.04938 -0.168 -0.1036 -0.3226 -0.3142 0.2089 -0.6833 0.3989 0.6777 -0.1085 0.001616 0.1692 -0.1001 -0.3642 0.6112 -0.8437 0.2478 -0.3892 0.02455 0.0223 -0.5073 -0.2945 -0.2627 0.1207 0.07024 0.1898 0.3468 -0.4357 1.119 -0.2365 0.06467 0.5369 0.847 0.02731 -0.09851 -0.4458 0.459 0.5833 0.197 -0.0005117 -0.3429 0.3264 0.1525 -0.15 0.6863 0.5177 0.3522 -0.1677 -0.1322 0.2494 -0.6661 0.4445 0.2468 -0.3581 -0.4827 -0.6246 0.0846 -0.7321 0.3402 0.7027 -0.2797 0.02503 0.6585 -0.6482 0.1304 -0.479 -0.3604 -0.1088 -0.7041 0.1516 0.3659 0.3185 -0.1997 0.5768 -0.2502 -0.4299 -0.8127 -0.4593 -0.1942 0.5286 0.3311 -0.07489 -0.005582 -0.3557 -0.5266 0.6129 -0.5321 -0.03682 -0.01344 0.4599 -0.5501 0.02275 -0.05283 0.4293 0.005709 -0.3614 0.7919 0.5143 -0.6619 -0.3905 0.3517 0.326 -0.2482 0.3338 -0.2404 -0.1198 -0.3726 -0.5758 -0.4078 -0.1398 -0.2514 0.03303 -0.619 -0.6004 -0.1894 0.3562 -0.1487 -0.2657 -0.1378 -0.3526 -0.698 -0.2737 -0.3743 0.2695 -0.1718 0.109 0.01227 0.1708 0.509 -0.4859 -0.1926 -0.9347 -0.2504 0.2292 0.4732 0.6863 -0.1401 0.3649 0.06978 0.5941 0.3005 -0.2364 0.6432 0.5337 -0.3925 0.1882 0.111 -0.02875 0.2014 0.5746 -0.4302 -0.04308 0.004845 -0.5128 -0.2247 -0.1426 -0.01843 -0.0399 -0.1346 0.5262 0.1602 0.5385 0.1045 -0.3017 -0.02829 0.4369 0.1492 -0.8198 0.2447 0.04616 0.6916 -0.3487 0.1987 -0.1373 0.6657 -0.6652 -0.1819 0.8101 0.3624 -0.4931 0.2859 0.184 0.4979 0.2132 0.02674 -0.4775 -0.4475 0.8029 0.237 0.149 -0.2209 0.1976 0.4627 0.03142 -0.1124 0.04822 0.4614 -0.3876 -0.2767 -0.449 -0.5246 -0.1564 -0.7738 0.7225 0.2671 -0.8649 0.5187 -0.4949 -0.1302 -0.5356 -0.08639 -0.0677 -0.4471 0.6446 -0.1119 -0.7086 0.5593 -0.5176 -0.02488 0.03762 -0.5061 -0.3369 -0.463 -0.5391 0.5903 0.6563 0.08006 0.5535 -0.3509 -0.2251 0.591 -0.08705 0.2786 -0.608 -0.1643 -0.6384 -0.2011 -0.08227 0.06411 0.08525 0.2065 -0.176 0.3467 0.1464 0.5822 -0.6056 0.1722 -0.03226 0.3174 0.4568 -0.4128 -0.1766 -0.2069 -0.4992 0.161 -0.2479 -0.3491 0.2541 0.3284 -0.2881 0.289 -0.4098 -0.07173 0.4509 0.5787 0.0466 0.3646 -0.2636 -0.6221 0.5265 -0.5676 0.1569 0.08459 0.2134 0.4678 0.129 -0.1946 0.05944 -0.8172 0.1993 0.7646 -0.3439 0.1442 0.0934 -0.02425 -0.5753 -0.6697 0.2239 -0.06922 0.3294 -0.6387 -0.1379 0.3399 -0.6371 -0.1284 -0.4404 -0.1542 -0.02714 -0.1785 0.4615 0.07334 -0.05102 -0.201 0.2188 0.2427 0.6275 -0.4221 0.2975 0.256 0.1435 0.01293 0.3508 0.07773 -0.7666 0.0002608 0.1964 -0.2278 -0.779 -0.547 -0.1678 -0.5769 0.1089 0.4663 -0.3854 0.4935 -0.1885 0.01113 0.04355 0.439 0.4342 -0.7029 -0.5235 -0.2443 -0.7556 -0.131 -0.04892 -0.3142 -0.6463 0.06563 0.09513 -0.5112 0.1748 0.6707 -0.1071 -0.00777 0.3008 -0.515 -0.1819 -0.6016 -0.06245 -0.2387 0.2527 0.2474 -0.03208 -0.6868 0.226 -0.1342 0.03305 -0.7807 0.7013 -0.07618 0.2324 -0.6396 -0.6186 -0.1468 -0.01776 0.0494 0.3453 -0.2857 -0.7407 -0.09572 -0.02133 -0.335 -0.04879 0.2993 -0.4953 0.059 -0.1337 0.1761 0.4991 -0.2295 0.5398 0.08851 0.1204 0.7911 -0.03185 0.8062 0.2151 0.6931 -0.04152 0.2389 -0.5521 -0.1193 -0.05904 -0.5042 -0.07164 0.04606 -0.2681 -0.06639 -0.1483 -0.498 0.3776 -0.1574 0.1931 -0.4137 0.6527 -0.1255 -0.6589 -0.3066 0.471 -0.7269 0.1557 0.07821 -0.129 0.179 -0.1085 -0.03661 -0.2596 0.02423 -0.1473 0.2328 -0.0414 -0.04299 0.1273 0.7495 -0.1126 0.01057 0.2203 -0.3713 0.007749 0.3028 0.2048 -0.08664 -0.06374 -0.08549 -0.2085 -0.08936 0.2887 -0.2996 0.02163 -0.4843 -0.5543 -0.2992 0.0589 0.3985 0.3914 0.591 -0.4642 -0.1886 -0.3094 0.03904 0.4255 0.1716 0.2231 -0.5371 -0.1274 0.06289 0.07728 -0.4585 0.201 -0.02596 0.2677 0.07132 0.2633 0.138 0.08279 -0.3163 -0.03906 -0.2483 0.2695 -0.4378
-0.5252 0.9697 -0.8263 0.3591 -0.325 0.1189 0.4948 0.9063 0.1834 -0.5942 -0.2283 -0.1846 0.1635 0.6984 0.2719 -0.06135 0.1924 -1.251 0.3445 0.2652 -0.2623 -0.8528 -0.3615 -0.1782 0.3779 -0.2319 0.2433 -0.004755 -0.1444 0.6624 0.1597 -0.4876 -0.343 0.3333 0.07069 0.4745 0.143 -1.166 0.009833 1.411 -0.6129 -0.1118 -0.005856 -0.06489 1.027 -0.2436 -0.1187 -0.08006 0.191 0.365 0.442 0.2253 1.134 0.2125 0.8194 0.04904 -0.01226 0.2531 -0.8134 0.01504 -0.6505 0.237 0.9551 0.2065 1.088 1.57 1.309 0.4572 -0.1737 0.04855 -0.374 0.1747 -0.09618 0.1011 0.5935 -0.902 -0.02231 -0.2623 -0.8201 -0.3564 -0.01 -0.4724 -0.656 0.7228 -0.3499 -0.4925 -0.5335 0.8365 0.4217 -0.8068 -0.4111 0.6783 -0.3775 0.5462 0.5856 1.526 -1.018 0.4711 -0.8574 0.2712 -0.5304 -0.07978 0.001239 -0.8782 -0.3385 -0.2301 -0.4856 -0.07824 -0.1737 0.4292 0.2534 -0.1036 0.3423 -0.3444 0.1173 -0.2958 -0.05106 -0.8963 -0.08088 0.914 -0.1135 0.6185 -0.0007714 -0.3356 -0.1012 -0.768 -0.4151 0.2255 0.05247 0.503 0.1714 -1.098 0.275 -0.337 -0.4899 -0.4174 0.1057 -0.3462 -0.6023 -0.4313 -0.8494 0.6649 0.2735 0.593 0.1157 0.6562 -0.2382 -0.4474 -0.04457 -0.1976 -0.09312 -0.4437 -0.5449 0.465 0.4691 -0.8437 -0.3461 -0.408 0.2511 1.055 0.1677 0.1934 0.5447 0.7074 0.5919 -1.255 0.3724 0.02934 -0.9768 -0.9956 0.376 -0.5762 -0.3475 0.4988 -0.342 -0.7509 -1.092 0.1075 -0.6153 1.423 0.2578 -0.5349 0.6006 -0.1708 -1.52 -0.4726 -0.7058 0.05916 -1.378 0.04385 1.039 -0.3017 -0.08137 -0.3631 0.2237 -0.6491 -0.2741 0.5615 -0.06394 -0.8855 -0.08303 0.1232 0.09927 -0.1464 -0.1165 0.4476 -0.5175 0.4666 -0.3976 0.6414 -0.7198 -0.5704 -0.4371 -0.08269 0.5194 0.6651 -0.5119 0.4535 0.002434 -0.7866 -1.075 0.1294 0.2703 0.8194 0.3471 -0.2897 -1.101 0.9617 0.004336 0.8596 0.5468 0.1306 0.04633 0.4036 -0.4539 -0.2197 0.4004 0.5979 0.8076 -0.4634 -0.03329 0.1818 0.07641 0.2036 1.275 0.1399 0.5678 0.7186 0.9161 0.4435 1.121 0.2255 -0.274 -0.6108 0.3694 0.7003 -1.078 -1.001 0.1506 0.05139 -0.3712 0.5138 0.8569 0.2807 0.02816 -0.695 0.2916 -0.3601 -0.1357 0.8693 0.8167 0.255 -0.7628 0.09794 -1.429 -0.8398 1.13 -0.5666 -0.8565 0.4654 -0.7535 -0.5331 -0.2399 1.301 0.4789 0.1687 -0.05599 -0.7076 0.3222 0.7239 0.2467 -0.2541 -0.2095 -0.5937 -0.6226 -1.369 1.122 0.1745 -0.22 0.5722 -0.1888 -0.3529 0.9086 1.118 1.722 0.543 0.4695 -1.179 -0.6397 -0.2181 -0.5654 -1.188 1.005 -0.3795 0.5201 0.2868 -0.9373 -0.3718 0.2657 -1.111 -0.2343 0.7342 0.4686 0.7568 0.6172 0.7359 0.5092 -0.2297 -0.9563 -0.1843 0.4841 0.3242 -0.03432 -0.2 0.0626 1.828 -0.7949 1.237 0.4686 0.6776 0.4747 -0.2829 -0.5976 -1.072 0.1876 -0.06682 -0.06687 0.7311 -0.07758 -1.458 0.5155 1.109 -0.04362 0.2861 -0.484 0.05934 0.4235 -0.2623 0.9143 0.8064 -0.187 0.7322 -0.4423 0.3261 -0.03531 0.2723 -0.2247 -0.2945 0.2552 1.002 0.7211 0.8241 -0.954 -0.1102 0.01411 -0.2993 0.5847 -0.2954 0.9631 1.049 0.8157 -0.4858 0.9736 -0.8214 -0.471 0.03552 -0.1204 -0.3898 -0.01591 0.224 -0.09889 -1.028 -0.2057 0.8637 -0.1508 -1.026 -0.3557 0.6469 -0.008847 0.6125 -0.1911 1.014 0.9939 -0.1598 0.3049 0.8819 0.3908 0.1629 0.5044 0.1809 -0.1473 -0.6399 1.154 0.2604 -0.8634 -0.5565 1.084 -0.7108 -0.03876 -0.3782 0.6448 -1.152 -0.7405 -0.6918 -0.4087 0.2015 -0.3042 -0.04517 0.04207 0.2935 0.07085 -0.9744 -0.9238 0.6413 1.343 1.001 -0.27 -0.01578 -0.8377 -0.02684 -0.1184 -0.6527 0.6174 0.7418 0.2108 -1.418 1.267 0.4767 0.9999 0.5083 -1.008 0.4424 -0.7752 0.3514 -0.2017 -0.2586 1.053 -0.3475 0.2611 0.6608 0.376 0.3975 -0.3404 1.174 1.224 -0.04005 1.159 -0.01539 -0.1216 1.119 0.6395 1.309 -0.01698 0.05831 0.06779 -0.05628 -0.00797 -0.3699 -0.8016 -0.1138 -0.05479 -0.7182 0.3325 0.3194 0.8037 0.4795 -0.2067 0.4746 0.6779 -0.3634 -0.2852 0.02485 -1.157 -0.02041 0.1812 0.6434 0.9425 -0.3853 -0.2669 -0.01139 -0.1579 -0.7492 0.6678 -0.06437 0.03421 -0.398 -1.072 0.2429 -0.2909 0.03691 -0.2075 -0.01448 -0.4313 -0.8339 0.5052 -0.191 0.02512 0.4534 -0.9993 0.2745 -0.08134 0.224 0.03677 0.03705 -0.05956 0.9445 0.4086 1.283 -0.249 -0.3905 0.8626 0.2627 0.3367 0.267 0.7576 0.3298 0.6365 -0.6369 -0.7427 0.556 0.1783 -0.07155 1.357 0.4558 0.4235 0.5885 0.8766 -0.2023 -0.1889 1.003 0.3964 -0.4437 0.1921 -0.5003 -0.8055 0.6558 0.1445 -0.1708 -0.8558 -1.096 -0.01619 0.01764 0.6891 -0.001335 -0.0007433 0.4037 -0.0973 1.36 0.08692 0.9498 -1.224 0.2626 0.7868 -0.732 0.5689 0.01236 0.2849 0.2399 -0.03539 -0.3021 0.8378 -0.1918 0.6029 -0.1684 -0.1537 -0.232 0.2779 0.2709 -0.09065 0.4859 -0.1662 -0.4246 -0.06949 0.5697 0.1257 0.01292 0.1398 0.2438 0.6435 1.607 -0.6734 -1.248 -0.09724 0.7981 -0.2047 -0.2524 0.5488 0.6911 -0.3066 -0.004202 -1.225 -0.3149 0.07376 0.9347 -0.06797 0.8554 -0.2216 1.255 0.4303 0.4633 0.1554 1.348 -0.758 0.2692 0.8519 -0.08877 -0.3789 -0.3972 0.8327 0.8366 0.3963 -0.1229 0.5883 -0.3022 -0.04975 -0.9434 -0.0007117 0.4733 0.5023 -0.1036 0.8437 0.5779 1.336 0.6528 0.3846 0.03777 0.9959 -0.6214 1.153 -0.284 -0.403 0.4483 -0.4811 0.8081 -0.5179 1.088 0.4836 0.5808 -0.7097 0.3794 0.7034 -0.6531 0.296 0.08806 -0.3849 0.4518 0.9761 1.187 -0.3274 -0.0359 -0.01614 -0.309 -0.1904 -0.1708 0.6585 0.09696 -0.9678 -0.02116 -0.336 0.6549 0.1867 0.0541 -0.02345 -0.05434 0.05781 -0.08573 0.3924 -0.2164 0.03663 0.4192 1.135 0.6666 -0.07283 0.3047 -1.279 -1.334 0.4547 -0.1837 -0.7464 -0.07273 0.1536 -0.5806 -0.3924 0.1363 -0.3836 0.5431 0.32 0.5874 -0.1659 0.06662 0.124 0.3132 0.04227 0.06967 -0.1136 0.2729 0.5962 0.2179 -0.4045 0.9871
0.7093 -0.1005 0.3391 0.4234 0.04943 -0.3429 0.4195 -0.2672 -0.01178 0.1382 0.08678 -0.2411 0.01978 -0.7632 -0.1145 -0.05813 0.1242 0.2162 -0.2512 -0.4611 0.3747 0.8016 1.084 0.4675 0.09204 0.5407 -0.4208 0.4326 -0.06131 -0.1642 -0.6415 0.4654 -0.6101 -0.5899 -0.5631 -0.3416 0.009024 0.6931 -0.3522 -0.4057 0.1444 -0.1171 -0.7799 -0.3857 -0.2597 0.003639 0.3783 0.3427 -0.686 -0.05476 -0.1803 -0.504 -0.3466 -0.1416 0.1146 -0.2337 0.2349 -0.7276 0.5499 -0.127 0.6442 0.2865 -0.4435 0.3521 -0.4339 -1.179 -0.4542 0.2689 -0.3962 -0.3368 -0.2175 -0.5937 0.1071 -0.5882 -0.3675 -0.6418 -0.03602 -0.05592 0.3173 0.8995 0.01772 0.3607 -0.006813 -0.6374 -0.1212 0.1253 -0.2255 -0.363 -0.5079 0.43 -0.01848 -0.1089 -0.002458 -0.6037 0.5186 -0.09444 0.3579 -0.5532 -0.3817 0.5782 -0.09312 -0.06478 0.1634 0.6555 0.1425 -0.05078 1.022 0.1583 0.2693 0.532 -0.2287 0.1551 0.109 -0.1038 0.06692 -0.3148 0.138 0.2022 -0.4265 -0.709 -0.4189 0.2595 -0.2376 -0.4898 0.4653 0.3145 0.7508 0.1415 -0.1343 -0.7724 -0.2814 0.148 -0.7602 -0.4683 0.5792 0.2898 -0.1158 0.4212 0.4587 -0.4203 -0.3287 0.2137 0.1946 -0.7958 -0.3484 -0.9178 -0.2515 0.6069 -0.209 0.7412 0.2642 0.0322 -0.1059 0.3552 0.3913 0.2517 0.5139 0.5706 0.1007 -0.518 -0.1483 0.003267 -0.2738 -0.5291 -0.2099 0.3977 0.1286 0.01676 0.5535 0.5139 0.1065 -0.07818 -0.1325 0.05522 -0.1714 -0.2665 0.5629 -0.03735 0.7111 -0.1917 0.1709 1.153 0.06594 -0.1988 0.1607 -0.0003188 -0.01538 0.007226 0.4215 -0.2089 0.01041 0.8037 -0.4809 -0.1173 -0.4871 -0.2233 0.574 -0.2849 -0.3348 -0.04529 0.1575 -0.6824 0.1266 -0.4836 -0.2133 0.5208 0.04164 0.08441 0.7799 -0.589 -0.05238 0.036 -0.1762 0.297 0.05224 -0.1748 -0.06498 0.5008 0.01162 0.1327 0.553 -0.2931 -0.01296 -0.6045 0.2792 0.005753 0.08381 -0.1714 0.7465 -0.4725 -0.1754 0.5992 -0.5388 -0.2829 0.2892 0.01847 -0.1772 -0.9148 0.2146 -0.03446 -0.4168 -0.4666 0.2796 -0.4711 -0.3984 -0.4297 -0.03354 -0.3764 -0.4969 -0.1575 -0.5217 -0.2721 0.5961 0.6681 -0.1345 0.162 0.1367 -0.07564 0.07169 0.04227 0.1342 -0.2903 0.002126 -0.6942 0.7839 0.2182 0.08861 0.1856 0.09893 0.04296 -0.1325 0.07418 0.3317 -0.05627 0.7307 0.08643 -0.4327 -0.8124 0.6539 -0.3793 -0.04388 -0.4256 -0.02251 -0.7433 0.159 -0.6 -0.6182 0.3667 -0.04418 -0.08354 -0.611 -0.2013 0.03172 -0.2949 -0.1794 0.4211 -0.5048 -0.1182 -0.1558 0.3153 -0.4803 0.1045 -0.2821 -0.2171 -0.7264 -0.3995 0.4896 0.2747 -0.3078 0.5129 0.08666 0.1119 0.2499 0.09388 0.2783 0.3364 0.5757 0.65 -0.3049 0.1621 -0.01989 -0.1536 -0.6915 -0.2937 0.1098 0.3404 0.1875 0.1959 0.06719 -0.04552 -0.387 -0.1866 0.5211 0.7582 -0.6561 -0.6029 0.8078 -0.6646 -0.6887 0.1777 -0.08153 0.01843 -0.1066 0.6612 0.2752 -0.6725 -0.5083 0.1774 0.4011 0.447 -0.6059 -0.533 -0.3156 0.1633 0.4339 0.263 0.5451 0.4505 -0.3253 -0.2831 0.1719 0.2162 0.7343 0.1495 -0.4317 -0.2633 0.2752 0.3623 0.2184 0.07823 -0.2661 -0.01617 0.3157 0.2893 -0.3839 0.03559 -0.6403 -0.3966 -0.2169 -0.5187 0.2938 0.699 -0.8049 -0.09385 -0.3864 0.1474 -0.3416 -0.06569 -0.5929 -0.3495 0.222 -0.1273 -0.332 -0.303 -0.03143 0.576 0.1618 -0.5917 -0.4507 0.1163 0.1756 -0.4688 -0.1445 0.4873 -0.02576 -0.4373 -0.2616 0.4296 -0.7925 -0.03255 -0.2834 0.3484 -0.3037 -0.1094 0.07604 0.06714 0.2114 0.2229 -0.1168 -0.3145 0.03281 0.4531 0.6345 -0.17 0.7197 -0.07816 -0.752 -0.6034 0.4698 -0.4813 -0.292 0.04325 0.3085 -0.4984 -0.3015 -0.1608 -0.5686 -0.141 0.2581 0.1917 -0.06918 -0.1125 -0.364 -0.176 -0.1465 0.2522 -0.4989 -0.056 -0.07266 0.2512 0.7242 0.5501 -0.2042 -0.4759 0.869 -0.3754 0.02701 0.5285 0.5058 -0.4566 0.06705 0.2876 -0.4988 -0.5938 -0.1579 -0.3861 -0.2053 -0.06668 0.154 -0.3604 -0.03598 -0.3305 0.5856 -0.6788 -0.8748 0.07061 -0.5786 0.4449 0.7097 -0.5955 -0.1138 0.1133 0.3234 -0.01496 0.01684 0.06199 0.2005 -0.002172 -0.4797 -0.1059 0.6408 -0.1339 0.3144 -0.672 0.5185 -0.505 -0.4668 -0.0407 -0.1968 0.3808 0.03593 0.719 0.1574 0.03431 0.2665 0.5614 0.2134 -0.1645 0.4629 -0.6888 0.7502 0.02587 -0.2254 -0.07933 -0.1951 0.03551 0.215 0.4026 -0.01997 0.3803 -0.2717 -0.1781 -0.2119 -0.4984 0.01805 -0.4138 -0.5272 -0.01879 -0.1297 -0.5661 -0.327 -0.4513 -0.1057 -0.08124 0.09542 0.5918 -0.5292 0.5111 -0.0646 0.3255 0.1128 -0.3185 -0.1488 -0.0002457 -0.03097 -0.1657 -0.4683 -0.01082 -0.212 -0.6374 -0.3399 0.4898 -0.4755 0.16 -0.1474 -0.07405 -0.2254 -0.1436 0.2446 0.5973 -0.2745 0.08281 0.259 -0.09662 0.1231 0.3808 0.7497 -0.5006 0.0674 -0.09011 0.562 -0.6238 -0.1196 0.1257 -0.305 0.1238 -0.1643 -0.5912 -0.1386 0.6758 0.2374 0.3293 0.4279 0.09028 -0.02642 0.422 0.6063 -0.3057 -0.1447 0.3251 -0.2232 -0.46 -0.1016 0.00624 -0.3664 0.6094 0.05705 0.3753 -0.3352 -0.6135 0.1679 0.257 -0.01984 0.3171 -0.1081 0.4632 -0.5582 0.211 -0.4268 0.1591 0.3414 0.6503 0.6399 -0.5099 0.2494 -0.3853 -0.1801 -0.4759 0.5175 -0.08586 0.1138 -0.4535 0.5592 -0.5944 -0.01408 0.1795 0.2998 0.1726 -0.9746 -0.2026 -0.6535 -0.1736 -0.659 -0.5913 -0.1068 -0.2717 -0.3857 -0.8974 0.02075 -0.2867 0.2139 -0.253 -0.5392 0.09461 -0.04745 -0.2555 -0.4539 -0.02345 -0.5442 0.5157 -0.134 -0.2809 -0.1584 -0.1002 -0.1578 -0.7109 0.5247 0.02758 -0.04703 0.3396 -0.6309 0.3176 -0.1721 -0.4514 0.3162 -0.1905 -0.4515 -0.7792 0.4684 -0.4058 0.111 -0.02056 -0.1152 -0.7331 -0.4102 -0.2521 0.3632 0.2913 0.07732 -0.5887 -0.4967 -0.08589 -0.0485 -0.06884 0.04082 -0.01464 -0.3001 0.4561 -0.07908 0.08627 -0.1525 -0.1974 -0.06504 -0.5896 0.1581 0.1035 0.004472 0.1413 0.794 0.1189 -0.581 0.2068 -0.2196 0.1589 0.4498 -0.5847 -0.3719 0.009647 -0.1635 -0.04243 -0.2187 -0.1415 -0.289 0.06787 0.1824 0.2588 -0.357 -0.1624 -0.09172 -0.2298
