-1.414 1.407 -1.397 -1.403 -1.386 1.385 1.377 -1.379 -1.377 1.373 -1.366 1.36 -1.362 -1.359 -1.353 1.348 -1.345 -1.344 1.333 -1.326 1.326 -1.335 -1.325 -1.316 1.311 -1.313 -1.301 -1.296 1.294 1.291 1.296 -1.285 -1.286 -1.279 1.276 -1.26 -1.265 -1.272 1.26 1.266 1.244 1.246 1.242 -1.231 -1.245 -1.23 -1.225 -1.222 1.221 -1.213 -1.212 -1.211 1.209 1.198 -1.199 1.193 -1.188 -1.186 -1.176 -1.176 -1.179 1.167 1.164 -1.159 1.161 1.16 1.159 -1.136 1.144 1.139 -1.135 1.125 1.135 -1.12 1.116 -1.115 1.11 1.105 1.097 -1.106 1.079 -1.09 -1.086 -1.081 1.074 -1.077 1.065 -1.061 -1.066 1.063 1.046 1.055 1.048 1.045 1.046 1.049 1.039 1.032 1.036 1.023 1.009 1.014 -1.002 -1.009 0.998 0.9978 -1.007 0.9827 -0.9827 0.988 0.9791 -0.9755 0.9678 0.9604 -0.9643 -0.9562 -0.9497 0.9571 -0.9501 -0.9381 0.9363 -0.9383 0.9372 -0.9234 0.9214 0.9151 0.9162 -0.9058 -0.8992 0.9048 0.9012 0.8885 -0.8906 -0.8879 -0.8831 0.8776 0.8746 0.8723 0.8736 0.863 0.8498 -0.8593 0.8475 0.8496 0.8448 0.8461 0.8345 -0.8354 -0.8268 -0.8232 0.8212 -0.815 -0.8152 0.8135 0.8013 0.7965 -0.7917 0.7906 0.7903 0.7888 -0.7761 -0.7763 -0.7744 -0.77 0.7648 0.7656 0.7572 -0.7529 -0.7558 0.7471 0.7388 0.7415 0.7335 -0.7084 -0.7249 -0.7179 -0.7256 -0.7156 -0.7134 0.7037 0.7013 -0.7074 0.6905 -0.691 -0.6984 -0.6765 0.6876 -0.6719 -0.6733 0.6668 -0.6756 -0.6606 -0.6571 -0.6566 0.6469 0.6419 -0.646 -0.6368 -0.6349 -0.6243 0.6252 -0.6148 0.6213 0.6151 -0.6082 -0.5978 -0.6023 -0.6 -0.5922 -0.5852 0.5834 -0.5838 0.5739 -0.5779 -0.568 -0.5584 -0.5639 0.5624 -0.5649 0.5544 -0.5496 0.54 -0.5482 -0.5442 -0.5292 0.5287 -0.5224 0.5197 0.5113 -0.5165 0.5084 -0.5092 -0.4958 0.4961 -0.4912 0.4857 0.4794 0.4838 0.4768 0.4725 -0.4675 0.4602 0.4588 -0.45 0.4528 -0.4522 -0.4403 0.4374 -0.4316 -0.4333 0.4291 0.4243 0.4171 0.4176 -0.3889 0.4079 -0.4094 0.3966 -0.3977 -0.3928 -0.3905 0.3867 -0.39 0.3784 -0.3819 -0.3653 -0.3622 0.3598 -0.3613 0.3571 -0.3461 0.3468 -0.3443 -0.3366 0.3559 -0.3326 -0.3189 -0.3232 -0.3312 -0.3209 -0.3085 -0.3057 0.3024 0.3102 0.2974 0.2983 0.2968 0.2733 0.2907 -0.2836 0.2749 0.2724 -0.252 -0.2625 -0.2583 -0.256 -0.2589 -0.2451 0.2395 -0.2333 -0.2313 -0.2287 0.2175 -0.2213 -0.2351 0.2214 -0.2104 -0.1967 0.1937 0.1996 -0.1913 0.1834 0.187 0.1814 -0.1817 -0.1763 -0.1688 0.1725 0.1667 0.1615 0.1487 -0.1524 0.1484 0.1342 -0.1385 0.1355 -0.1272 0.1272 0.1269 0.1133 -0.112 -0.1131 -0.1061 0.09233 0.1065 -0.1161 -0.1038 0.0845 0.08471 0.07772 0.06727 0.05176 0.06256 -0.06203 0.05774 -0.06067 0.0544 -0.04324 0.04735 -0.03063 -0.0346 -0.04058 -0.03023 -0.02618 -0.01741 -0.01464 -0.0004519 -0.01086 0.001841 -0.00515 0.002826 0.0005304 -0.007637 0.009028 -0.01021 -0.01932 0.02714 0.02698 0.02803 0.04505 -0.044 -0.03884 0.04595 -0.05435 0.06536 -0.05777 -0.06611 -0.06095 -0.08178 0.08552 -0.08831 0.08804 0.07794 -0.09382 -0.08881 -0.09013 0.109 0.09096 0.1048 -0.1203 0.1185 -0.1186 -0.1197 -0.1324 -0.1366 -0.1489 -0.1422 -0.1422 -0.1547 -0.155 -0.158 -0.1548 0.1727 -0.1719 -0.176 0.1761 0.1844 0.1632 0.1896 -0.1979 0.1923 -0.1977 0.203 -0.2102 -0.215 0.2141 -0.2271 -0.2288 0.2334 -0.2286 -0.2303 -0.2397 0.2432 -0.2509 0.2482 0.2552 0.2671 -0.269 -0.2744 -0.2653 0.278 0.2706 -0.2899 -0.2848 0.2799 0.299 -0.2948 -0.3015 0.3194 0.3085 0.3115 0.3194 -0.3231 -0.3227 -0.3305 -0.3381 -0.3478 0.3439 -0.3444 0.3468 0.3557 -0.3677 0.371 0.3706 0.3689 -0.3786 0.3747 0.3784 -0.3968 -0.3859 -0.3968 -0.3982 -0.3996 0.4163 -0.4064 0.4127 -0.4122 0.425 0.4191 0.4413 -0.4407 -0.4427 -0.443 0.4501 0.4483 -0.4591 -0.4478 0.4566 -0.4653 0.4648 0.475 0.4755 0.4807 -0.4854 -0.4921 -0.4948 -0.4992 0.5089 -0.4991 -0.4991 0.5039 -0.5146 0.5185 0.5236 0.528 0.5294 -0.5363 0.5319 -0.5405 0.546 -0.5496 -0.5652 0.5535 0.5623 -0.5693 -0.5767 -0.5749 -0.5856 0.5759 0.5901 0.5774 -0.5925 0.5965 0.6032 -0.6066 0.6029 -0.6113 0.612 0.6287 0.6268 0.6275 -0.6343 0.6353 -0.6348 0.6368 0.6497 -0.6498 0.6557 0.665 0.6644 -0.6609 -0.6711 -0.6765 -0.6742 0.678 0.6928 -0.6911 0.688 0.7032 -0.7022 0.7041 0.7086 0.7251 -0.7164 0.7274 0.7247 -0.7263 0.744 0.7354 -0.7456 0.7485 -0.7494 -0.7528 -0.7589 -0.7688 0.7585 -0.7643 -0.7729 0.7799 0.766 -0.789 -0.7939 0.7922 0.7986 -0.811 -0.8103 0.81 0.8193 0.8127 0.8157 -0.812 -0.8278 0.8335 0.8376 -0.8371 -0.8449 -0.8503 0.8532 -0.8561 0.8536 -0.8624 0.8638 0.8741 0.8761 0.8795 0.8828 -0.8928 0.8889 0.9011 0.9015 0.8986 0.9088 0.9116 -0.9159 -0.9175 -0.9288 -0.9257 -0.9297 0.9285 -0.9326 0.9371 0.9615 0.9483 -0.9632 -0.9539 -0.9599 -0.9594 -0.9711 -0.9722 0.9732 0.9891 0.9897 -0.995 -0.9886 -0.9945 -1.005 -1.004 -1.011 1.02 1.014 -1.034 1.023 1.039 1.04 -1.024 -1.038 1.049 -1.043 1.061 -1.062 -1.055 1.075 1.07 -1.07 1.075 -1.078 1.086 1.097 -1.102 1.113 -1.092 1.102 -1.118 1.11 -1.112 1.116 1.121 -1.103 -1.132 1.138 1.138 1.142 1.152 -1.158 1.155 1.161 -1.168 -1.16 -1.164 1.174 1.181 -1.175 1.183 1.187 1.189 -1.193 1.193 1.194 1.201 -1.207 -1.204 1.217 1.22 1.229 1.232 1.235 -1.235 1.24 1.244 -1.248 1.257 1.257 1.262 1.269 1.274 1.282 -1.274 -1.283 -1.288 1.291 1.296 -1.292 1.3 1.31 1.317 1.313 1.319 1.32 -1.326 -1.328 1.329 1.339 1.344 1.344 -1.348 1.353 -1.353 -1.36 1.363 -1.378 -1.374 -1.372 -1.377 -1.386 -1.386 -1.388 -1.397 1.397 1.406 -1.4
